<?xml version="1.0"?>
<opencv_storage>
<myhaar type_id="opencv-haar-classifier">
  <size>
    24 24</size>
  <stages>
    <_>
      <trees>
        <_>
          <_>
            <feature>
              <rects>
                <_>
                  3 4 16 14 -1.</_>
                <_>
                  3 4 8 7 2.</_>
                <_>
                  11 11 8 7 2.</_></rects>
              <tilted>0</tilted></feature>
            <threshold>-0.0958413183689117</threshold>
            <left_val>0.9134613275527954</left_val>
            <right_val>-0.9999958872795105</right_val></_></_></trees>
      <stage_threshold>0.9134613275527954</stage_threshold>
      <parent>-1</parent>
      <next>-1</next></_>
    <_>
      <trees>
        <_>
          <_>
            <feature>
              <rects>
                <_>
                  1 0 19 16 -1.</_>
                <_>
                  1 4 19 8 2.</_></rects>
              <tilted>0</tilted></feature>
            <threshold>0.1072957962751389</threshold>
            <left_val>-1.</left_val>
            <right_val>0.8009057044982910</right_val></_></_></trees>
      <stage_threshold>0.8009057044982910</stage_threshold>
      <parent>0</parent>
      <next>-1</next></_>
    <_>
      <trees>
        <_>
          <_>
            <feature>
              <rects>
                <_>
                  2 5 18 1 -1.</_>
                <_>
                  8 5 6 1 3.</_></rects>
              <tilted>0</tilted></feature>
            <threshold>-0.0146430097520351</threshold>
            <left_val>0.7304341793060303</left_val>
            <right_val>-0.9999955296516419</right_val></_></_></trees>
      <stage_threshold>0.7304341793060303</stage_threshold>
      <parent>1</parent>
      <next>-1</next></_>
    <_>
      <trees>
        <_>
          <_>
            <feature>
              <rects>
                <_>
                  7 7 10 2 -1.</_>
                <_>
                  7 7 5 1 2.</_>
                <_>
                  12 8 5 1 2.</_></rects>
              <tilted>0</tilted></feature>
            <threshold>4.7437371686100960e-003</threshold>
            <left_val>-0.8346484899520874</left_val>
            <right_val>0.8480383157730103</right_val></_></_>
        <_>
          <_>
            <feature>
              <rects>
                <_>
                  9 9 12 2 -1.</_>
                <_>
                  15 9 6 1 2.</_>
                <_>
                  9 10 6 1 2.</_></rects>
              <tilted>0</tilted></feature>
            <threshold>0.0124849099665880</threshold>
            <left_val>-0.3560943901538849</left_val>
            <right_val>0.8683121204376221</right_val></_></_>
        <_>
          <_>
            <feature>
              <rects>
                <_>
                  5 8 13 8 -1.</_>
                <_>
                  5 12 13 4 2.</_></rects>
              <tilted>0</tilted></feature>
            <threshold>-0.1052225977182388</threshold>
            <left_val>0.8711584210395813</left_val>
            <right_val>-0.8026394248008728</right_val></_></_></trees>
      <stage_threshold>-0.3195844888687134</stage_threshold>
      <parent>2</parent>
      <next>-1</next></_>
    <_>
      <trees>
        <_>
          <_>
            <feature>
              <rects>
                <_>
                  4 0 8 8 -1.</_>
                <_>
                  4 2 8 4 2.</_></rects>
              <tilted>0</tilted></feature>
            <threshold>0.0161941498517990</threshold>
            <left_val>-0.8338199257850647</left_val>
            <right_val>0.8387243151664734</right_val></_></_>
        <_>
          <_>
            <feature>
              <rects>
                <_>
                  8 9 14 2 -1.</_>
                <_>
                  15 9 7 1 2.</_>
                <_>
                  8 10 7 1 2.</_></rects>
              <tilted>0</tilted></feature>
            <threshold>0.0136314202100039</threshold>
            <left_val>-0.6613690257072449</left_val>
            <right_val>0.7934532761573792</right_val></_></_></trees>
      <stage_threshold>-0.0403666496276855</stage_threshold>
      <parent>3</parent>
      <next>-1</next></_>
    <_>
      <trees>
        <_>
          <_>
            <feature>
              <rects>
                <_>
                  1 10 6 12 -1.</_>
                <_>
                  1 13 6 6 2.</_></rects>
              <tilted>0</tilted></feature>
            <threshold>4.2509371414780617e-003</threshold>
            <left_val>-1.</left_val>
            <right_val>0.6514526009559631</right_val></_></_></trees>
      <stage_threshold>0.6514526009559631</stage_threshold>
      <parent>4</parent>
      <next>-1</next></_></stages></myhaar>
</opencv_storage>
